no_of_iter = 1
3.30341e-006
5.50568e-005
 0.000131035
 0.000334745
 0.000784009
  0.00173539
  0.00353244
 0.000841268
 0.000686008
 0.000632052
 0.000734458
  0.00163739
   0.0618739
  0.00700873
  0.00706929
  0.00425809
   0.0030017
  0.00665417
  0.00179485
 0.000373285
  0.00016517
3.19329e-005
7.70795e-006
           0
           0
1.10114e-006
1.10114e-006
2.20227e-006
5.50568e-006
3.52364e-005
 0.000836863
  0.00122777
  0.00318999
   0.0085316
   0.0244882
   0.0461024
  0.00142927
 0.000134339
2.20227e-005
9.91022e-006
 1.6517e-005
2.53261e-005
3.30341e-006
1.10114e-006
           0
           0
           0
           0
           0
5.50568e-006
2.64273e-005
 0.000110114
 0.000355667
 0.000792818
  0.00191488
 0.000787312
  0.00171887
   0.0035842
   0.0103165
   0.0435918
   0.0151373
  0.00985847
   0.0036833
  0.00193139
  0.00105929
   0.0007752
 0.000103507
6.82704e-005
5.50568e-006
4.40454e-006
           0
           0
           0
           0
1.10114e-006
6.60682e-006
8.80909e-006
2.75284e-005
 0.000103507
5.83602e-005
 0.000264273
 0.000516433
  0.00170346
   0.0134735
   0.0141309
  0.00689752
 0.000563782
 0.000126631
 0.000110114
8.69897e-005
7.70795e-006
1.10114e-006
           0
           0
           0
           0
           0
7.70795e-006
2.75284e-005
8.80909e-005
 0.000299509
  0.00081374
  0.00243461
  0.00124098
  0.00192919
  0.00296646
   0.0045543
   0.0398622
   0.0134889
   0.0328006
   0.0207773
  0.00905024
  0.00437812
  0.00462697
 0.000418432
 0.000118923
3.63375e-005
1.21125e-005
1.21125e-005
           0
1.10114e-005
  0.00011672
 0.000181687
 0.000331442
 0.000492208
 0.000667288
  0.00057149
 0.000109012
 0.000212519
 0.000442657
  0.00138853
  0.00118813
  0.00102626
 0.000392004
4.95511e-005
4.73488e-005
3.63375e-005
9.24954e-005
5.39557e-005
1.43148e-005
8.80909e-006
4.40454e-006
2.20227e-006
           0
           0
           0
1.10114e-006
           0
5.50568e-006
2.09216e-005
4.73488e-005
 2.4225e-005
6.82704e-005
 0.000409623
 0.000564883
  0.00144249
  0.00112977
 0.000233441
 0.000173979
 0.000198204
 0.000197103
 0.000829155
 0.000643063
 0.000480095
 0.000351262
 0.000215823
 0.000191598
3.52364e-005
           0
           0
           0
           0
           0
           0
           0
           0
1.10114e-006
1.10114e-006
2.53261e-005
2.75284e-005
  0.00870888
 0.000245553
  0.00011672
1.87193e-005
2.20227e-006
1.10114e-006
           0
           0
           0
           0
           0
           0
           0
1.10114e-006
           0
           0
2.20227e-006
1.98204e-005
6.16636e-005
1.87193e-005
5.83602e-005
 0.000120024
 0.000212519
  0.00071684
5.28545e-005
1.10114e-005
4.40454e-006
1.10114e-006
2.20227e-006
1.10114e-005
1.10114e-005
1.10114e-006
           0
           0
           0
           0
           0
1.10114e-006
8.80909e-006
1.21125e-005
4.73488e-005
7.04727e-005
 0.000112316
2.86295e-005
5.72591e-005
 0.000129934
 0.000401915
  0.00129934
   0.0146925
  0.00251279
 0.000575894
 0.000285194
 0.000204811
 0.000448162
 0.000187193
  4.845e-005
1.43148e-005
4.40454e-006
2.20227e-006
           0
           0
6.60682e-006
1.32136e-005
5.61579e-005
  0.00016517
 0.000438252
   0.0012608
 0.000574793
  0.00071684
 0.000776301
  0.00132136
   0.0124164
   0.0108374
    0.018923
  0.00854702
  0.00399382
  0.00156802
  0.00152728
 0.000122226
1.87193e-005
7.70795e-006
4.40454e-006
3.30341e-006
           0
2.20227e-006
 1.6517e-005
5.61579e-005
 0.000102406
 0.000196002
 0.000323734
 0.000355667
4.40454e-005
2.86295e-005
1.98204e-005
9.91022e-006
1.98204e-005
 0.000355667
  0.00318889
  0.00246654
  0.00140835
 0.000911741
   0.0022287
 0.000790616
  0.00044596
 0.000171777
7.59784e-005
7.04727e-005
7.70795e-006
           0
5.50568e-006
2.20227e-005
7.48773e-005
 0.000235643
 0.000692615
  0.00195562
 0.000953584
  0.00185211
  0.00417771
  0.00543741
  0.00173209
   0.0136992
  0.00217915
  0.00276055
  0.00209326
  0.00186643
  0.00700433
  0.00282992
 0.000931561
 0.000257666
6.71693e-005
 1.6517e-005
           0
           0
8.80909e-006
2.97307e-005
6.27648e-005
 0.000137642
 0.000273082
 0.000546163
 0.000161867
 0.000240048
  0.00050432
  0.00065958
 0.000266475
   0.0119969
  0.00142267
  0.00103837
  0.00176953
  0.00105709
  0.00328469
  0.00119693
 0.000340251
8.14841e-005
2.20227e-005
1.10114e-006
           0
           0
           0
           0
           0
           0
           0
           0
           0
           0
1.10114e-006
2.20227e-006
3.96409e-005
 0.000371083
 0.000146451
 0.000291801
 0.000142047
5.28545e-005
  0.00013544
5.50568e-005
4.18432e-005
1.98204e-005
9.91022e-006
4.40454e-006
1.10114e-006
1.10114e-006
3.74386e-005
5.94613e-005
 0.000118923
 0.000169575
 0.000284093
  0.00034906
5.17534e-005
5.39557e-005
1.98204e-005
8.80909e-006
2.75284e-005
  0.00140065
  0.00563672
  0.00578537
  0.00322743
  0.00215382
  0.00618949
  0.00304905
   0.0015504
 0.000859987
  0.00044596
 0.000325936
3.96409e-005
           0
4.40454e-006
2.20227e-005
4.18432e-005
 0.000112316
 0.000281891
 0.000682704
 0.000309419
 0.000667288
  0.00105379
  0.00208005
    0.010692
   0.0126014
  0.00148874
 0.000817043
 0.000465781
 0.000429443
  0.00081374
 0.000223531
3.19329e-005
7.70795e-006
2.20227e-006
           0
           0
           0
           0
2.20227e-006
6.60682e-006
1.21125e-005
4.95511e-005
 0.000105709
1.76182e-005
 1.6517e-005
8.80909e-006
  0.00010681
 0.000204811
   0.0141705
  0.00246214
  0.00256014
    0.001067
 0.000757582
  0.00142487
 0.000327037
7.15738e-005
1.87193e-005
1.10114e-006
           0
           0
           0
           0
           0
           0
           0
           0
           0
1.10114e-006
3.30341e-006
6.60682e-006
1.10114e-005
4.40454e-006
  0.00238506
   0.0006783
  0.00123217
  0.00130815
  0.00142597
  0.00806032
  0.00846223
  0.00709572
  0.00525022
   0.0033937
  0.00282772
  0.00049441
2.20227e-006
2.31239e-005
5.72591e-005
 0.000123327
 0.000263172
 0.000343554
 0.000454769
 7.2675e-005
5.94613e-005
 2.4225e-005
2.64273e-005
 1.6517e-005
 0.000791717
  0.00479985
  0.00460495
  0.00221879
  0.00139294
  0.00383746
  0.00190276
  0.00109453
 0.000545062
 0.000243351
 0.000153058
7.70795e-006
           0
           0
1.10114e-006
4.40454e-006
1.21125e-005
3.41352e-005
7.37761e-005
2.09216e-005
3.52364e-005
 0.000110114
 0.000216924
  0.00088201
 0.000245553
 0.000641962
 0.000291801
 0.000140945
5.39557e-005
2.86295e-005
2.20227e-006
1.10114e-006
           0
           0
           0
           0
           0
           0
1.10114e-006
1.10114e-006
           0
7.70795e-006
 2.4225e-005
2.75284e-005
5.06523e-005
4.29443e-005
 0.000811537
   0.0141969
  0.00322523
3.63375e-005
1.87193e-005
4.40454e-006
5.50568e-006
7.70795e-006
3.30341e-006
           0
           0
           0
           0
           0
           0
           0
           0
           0
1.10114e-006
5.50568e-006
 0.000127732
  0.00013544
 0.000299509
 0.000822549
  0.00259868
  0.00483509
1.87193e-005
           0
           0
           0
           0
           0
           0
           0
           0
           0
           0
           0
           0
1.10114e-006
4.40454e-006
6.60682e-006
6.60682e-006
1.43148e-005
3.08318e-005
9.91022e-006
8.80909e-006
6.60682e-006
5.50568e-006
4.95511e-005
   0.0230886
  0.00364586
 0.000519736
 0.000156361
9.13943e-005
 0.000172878
  4.845e-005
2.20227e-005
8.80909e-006
2.20227e-006
           0
           0
           0
           0
3.30341e-006
3.30341e-006
1.32136e-005
 4.0742e-005
 0.000281891
 0.000327037
 0.000771896
  0.00257005
   0.0100027
   0.0398303
  0.00656607
  0.00272201
  0.00071684
 0.000328139
  0.00013544
 0.000199306
3.96409e-005
1.54159e-005
2.20227e-006
           0
           0
           0
1.10114e-006
1.76182e-005
3.41352e-005
6.38659e-005
 0.000146451
 0.000214722
 0.000222429
2.97307e-005
1.21125e-005
7.70795e-006
4.40454e-006
7.70795e-006
 0.000322633
  0.00256455
  0.00189836
  0.00101745
 0.000700323
  0.00178054
  0.00081374
 0.000317127
 0.000122226
4.29443e-005
1.54159e-005
1.10114e-006
           0
4.40454e-006
1.32136e-005
4.29443e-005
8.25852e-005
 0.000138743
 0.000352364
7.81807e-005
 0.000102406
 0.000120024
 0.000299509
  0.00133237
  0.00884102
  0.00148763
 0.000430544
 0.000356768
 0.000294003
 0.000974505
  0.00042614
 0.000166272
4.51466e-005
1.32136e-005
8.80909e-006
           0
           0
           0
           0
           0
2.20227e-006
           0
1.21125e-005
8.80909e-006
2.09216e-005
3.08318e-005
 0.000301711
  0.00066839
  0.00042614
7.15738e-005
 0.000120024
3.19329e-005
4.62477e-005
7.59784e-005
6.16636e-005
1.10114e-006
           0
           0
           0
           0
           0
           0
1.10114e-006
4.40454e-006
7.70795e-006
1.98204e-005
 4.0742e-005
3.08318e-005
6.16636e-005
  0.00010681
 0.000180586
 0.000184991
  0.00117381
 0.000230137
 0.000371083
 0.000316026
 0.000265374
 0.000923853
 0.000440454
 0.000161867
 7.2675e-005
3.85398e-005
1.98204e-005
1.10114e-006
           0
           0
           0
1.10114e-006
2.20227e-006
3.30341e-006
7.04727e-005
4.95511e-005
8.14841e-005
 0.000148653
 0.000253261
  0.00177173
5.50568e-005
1.10114e-006
1.10114e-006
           0
           0
           0
           0
           0
           0
           0
           0
           0
           0
           0
           0
           0
           0
3.30341e-006
5.06523e-005
3.52364e-005
5.94613e-005
 0.000101305
 0.000271981
   0.0035886
 0.000354566
1.10114e-006
           0
           0
           0
1.10114e-006
           0
           0
           0
           0
           0
           0
           0
           0
           0
           0
           0
3.30341e-006
6.60682e-006
1.10114e-005
3.85398e-005
  0.00013544
 0.000770795
  0.00128282
 0.000730053
 0.000244452
9.57988e-005
5.39557e-005
3.19329e-005
3.52364e-005
8.80909e-006
2.20227e-006
           0
           0
           0
           0
           0
           0
           0
           0
           0
           0
2.20227e-006
9.91022e-006
1.54159e-005
7.48773e-005
 0.000221328
2.64273e-005
3.74386e-005
5.50568e-006
1.10114e-006
           0
           0
           0
           0
           0
           0
           0
           0
           0
           0
           0
           0
           0
1.10114e-006
           0
2.20227e-006
4.40454e-006
3.30341e-006
8.80909e-006
2.31239e-005
 0.000389802
3.08318e-005
8.80909e-006
1.10114e-006
           0
2.20227e-006
           0
           0
           0
           0
           0
           0
           0
           0
           0
1.10114e-006
3.30341e-006
8.80909e-006
5.50568e-005
 0.000268677
 0.000223531
 0.000302812
 0.000625445
 0.000589108
  0.00010681
2.31239e-005
4.40454e-006
           0
           0
2.20227e-006
2.20227e-006
           0
3.30341e-006
           0
           0
           0
           0
           0
           0
           0
2.20227e-006
1.10114e-006
4.40454e-006
4.18432e-005
 2.4225e-005
5.28545e-005
8.47875e-005
 0.000360071
   0.0010648
 0.000270879
 0.000115619
2.75284e-005
9.91022e-006
2.20227e-006
9.91022e-006
           0
           0
           0
           0
           0
           0
           0
           0
1.10114e-006
2.20227e-006
6.60682e-006
1.32136e-005
9.35966e-005
7.59784e-005
 0.000241149
 0.000526343
 0.000137642
           0
  0.00502008
 0.000955786
 0.000375487
 0.000201508
3.52364e-005
5.17534e-005
7.70795e-006
           0
1.10114e-006
           0
           0
           0
           0
           0
           0
           0
           0
           0
           0
           0
           0
           0
5.50568e-006
5.50568e-006
  0.00260088
  0.00010681
5.94613e-005
8.80909e-006
7.70795e-006
2.20227e-006
           0
           0
           0
           0
           0
           0
           0
           0
           0
           0
           0
           0
1.10114e-006
2.20227e-006
5.50568e-006
9.91022e-006
2.20227e-005
9.46977e-005
4.18432e-005
2.64273e-005
6.60682e-006
5.50568e-006
3.30341e-006
1.21125e-005
2.20227e-006
           0
           0
           0
           0
           0
           0
           0
           0
           0
           0
           0
           0
1.10114e-006
           0
9.91022e-006
2.20227e-005
   0.0008721
8.80909e-006
1.10114e-006
           0
1.10114e-006
           0
           0
           0
           0
           0
           0
           0
           0
           0
           0
           0
           0
           0
           0
6.60682e-006
1.10114e-006
2.20227e-006
7.70795e-006
1.76182e-005
7.70795e-006
1.54159e-005
1.10114e-006
           0
1.10114e-006
1.10114e-006
2.20227e-006
           0
           0
           0
           0
           0
           0
           0
           0
           0
           0
1.10114e-006
1.10114e-006
5.50568e-006
2.20227e-006
3.30341e-006
7.70795e-006
1.10114e-006
1.10114e-006
 0.000102406
1.54159e-005
3.30341e-006
4.40454e-006
1.10114e-006
           0
           0
           0
           0
           0
           0
           0
           0
           0
           0
           0
           0
3.30341e-006
2.20227e-006
1.10114e-006
5.50568e-006
5.50568e-006
1.21125e-005
           0
           0
           0
           0
           0
           0
           0
           0
           0
           0
           0
           0
           0
           0
           0
           0
           0
1.10114e-006
           0
6.60682e-006
6.60682e-006
8.80909e-006
6.60682e-006
7.70795e-006
7.70795e-006
3.19329e-005
1.10114e-005
5.50568e-006
2.20227e-006
           0
3.30341e-006
           0
           0
           0
           0
           0
           0
           0
           0
           0
           0
           0
           0
1.10114e-006
2.20227e-006
5.50568e-006
1.43148e-005
4.40454e-005
 0.000100203
           0
           0
           0
           0
           0
           0
           0
           0
           0
           0
           0
           0
no_of_iter = 300
 0.0805642
-0.0182809
-0.0182387
-0.0181348
 -0.017443
-0.0165627
 -0.014844
-0.0175713
-0.0176675
-0.0178108
-0.0177102
 0.0820001
  0.835015
  0.185994
  0.285746
-0.0141591
-0.0154538
   0.28642
-0.0166835
-0.0180871
-0.0182292
-0.0181656
-0.0183487
-0.0183874
-0.0184208
-0.0183047
-0.0182161
-0.0183325
 -0.018183
-0.0183078
-0.0174816
-0.0171537
 0.0842447
  0.287279
  0.404109
  0.521257
 -0.016818
-0.0182843
-0.0181978
-0.0183678
-0.0181996
-0.0181837
-0.0182575
-0.0183649
 -0.018338
-0.0183794
-0.0185909
-0.0184386
-0.0184018
-0.0183549
-0.0182617
-0.0184084
-0.0179545
-0.0174855
  0.182018
-0.0176676
-0.0166092
 0.0840723
  0.289101
   1.20615
  0.790514
  0.485667
-0.0147776
 0.0824517
  0.082374
-0.0177047
-0.0182835
 -0.018311
-0.0184085
-0.0183467
-0.0184212
-0.0183638
-0.0181711
-0.0182989
-0.0183932
 -0.018515
-0.0182206
-0.0183681
-0.0181375
-0.0182571
-0.0179755
 -0.017871
-0.0167418
  0.391639
  0.292799
-0.0116962
-0.0177286
-0.0182457
-0.0183044
-0.0182773
-0.0183215
-0.0183423
-0.0183803
-0.0184244
-0.0184493
-0.0183986
-0.0183218
-0.0184657
-0.0182999
-0.0181999
-0.0180055
-0.0175726
  0.182638
-0.0172409
 -0.016461
  0.083474
-0.0139177
    1.2121
  0.292786
  0.609685
  0.199522
  0.188999
-0.0140313
 0.0851282
-0.0179008
-0.0179646
-0.0182548
-0.0183813
-0.0184314
-0.0184916
-0.0183254
 -0.018329
-0.0181577
-0.0178907
-0.0179485
 -0.017596
 -0.017924
-0.0183095
-0.0182779
 0.0809392
 0.0820055
-0.0172473
-0.0172718
-0.0179005
-0.0182964
-0.0182505
-0.0181921
 -0.018194
-0.0181315
-0.0182901
-0.0183597
 -0.018353
-0.0183857
-0.0184524
-0.0183163
-0.0185359
-0.0181808
-0.0183731
-0.0184002
-0.0182762
-0.0182912
-0.0181841
-0.0182395
-0.0180145
-0.0178239
-0.0170877
 0.0815251
-0.0181425
-0.0183286
-0.0182083
-0.0180693
 0.0811574
 -0.017693
-0.0177864
-0.0180906
-0.0181636
-0.0182399
-0.0183096
-0.0182692
-0.0184254
-0.0181217
-0.0182136
-0.0182687
-0.0181922
-0.0184265
-0.0182545
-0.0184256
-0.0184068
-0.0181267
-0.0183967
 0.0892097
 -0.018065
-0.0183282
-0.0182849
-0.0183084
-0.0184075
-0.0184921
 -0.018575
  -0.01842
-0.0181486
-0.0183877
-0.0182936
-0.0182353
-0.0183715
-0.0182599
-0.0183181
-0.0184067
-0.0183005
-0.0182565
-0.0183023
 0.0802775
-0.0182229
-0.0182383
-0.0178607
-0.0183732
-0.0183622
-0.0182784
-0.0183967
-0.0182245
-0.0182018
-0.0183115
-0.0182575
-0.0183301
-0.0181668
-0.0183397
-0.0182363
-0.0183215
-0.0184294
-0.0182448
-0.0182677
-0.0184397
-0.0183787
-0.0182067
  -0.01828
-0.0182023
-0.0181729
 -0.017917
 0.0817335
 0.0957354
  0.282159
-0.0176388
 0.0807857
-0.0181926
-0.0179224
-0.0182439
-0.0183888
-0.0182785
-0.0185692
-0.0183299
-0.0181672
-0.0183533
-0.0184753
-0.0182122
-0.0182933
-0.0181592
-0.0179918
 -0.017189
 -0.017707
-0.0176325
 -0.017465
  -0.01685
  0.192409
   0.19076
   0.59717
  0.386671
-0.0144458
-0.0168313
  0.082674
 -0.018125
-0.0182281
-0.0183768
-0.0184114
-0.0182123
-0.0181217
-0.0182738
-0.0182531
-0.0184343
-0.0182367
-0.0181423
 -0.017955
-0.0179482
 -0.018444
 -0.018364
-0.0183103
 -0.018218
-0.0180967
-0.0180575
 0.0842963
-0.0158648
-0.0169892
-0.0176191
-0.0162654
 0.0812764
-0.0178135
 -0.018043
-0.0182139
-0.0182508
-0.0182786
-0.0182348
-0.0183756
-0.0183057
-0.0182013
-0.0181205
 0.0811561
-0.0164218
-0.0173297
-0.0164727
-0.0143083
-0.0129677
-0.0166324
  0.293074
-0.0162224
 0.0832117
 0.0834548
-0.0163633
  0.384473
-0.0156756
-0.0175551
-0.0181226
-0.0181546
-0.0181981
-0.0182581
-0.0185643
 -0.018435
-0.0184797
-0.0183392
-0.0181512
-0.0179848
-0.0178158
-0.0180665
-0.0180877
-0.0178532
-0.0178707
-0.0180764
  0.689044
-0.0168312
-0.0173582
 -0.016651
 0.0824073
-0.0151974
-0.0172354
-0.0179675
-0.0182709
-0.0181422
-0.0182437
-0.0184109
 -0.018233
-0.0183276
-0.0183704
-0.0182656
-0.0184062
-0.0183786
-0.0185226
-0.0182383
-0.0182614
-0.0183538
-0.0183284
-0.0182027
-0.0179357
-0.0184454
-0.0180235
-0.0183104
-0.0183756
-0.0183895
 0.0807277
-0.0182913
-0.0182894
-0.0183276
-0.0183612
-0.0182579
-0.0182615
-0.0182191
-0.0182623
-0.0181288
-0.0180767
-0.0182476
-0.0180924
-0.0182498
-0.0182177
-0.0182727
-0.0184269
-0.0183271
-0.0169864
-0.0129054
-0.0127606
 0.0844974
 0.0825843
  0.185252
-0.0154026
-0.0170367
 -0.017529
-0.0177437
-0.0179266
  0.080414
-0.0183983
-0.0182329
-0.0183989
-0.0181957
 -0.018166
-0.0180106
-0.0176307
-0.0181094
-0.0175655
-0.0172391
-0.0163019
  0.190532
 0.0936189
-0.0169563
-0.0176035
-0.0178827
-0.0180364
-0.0174864
-0.0181828
-0.0182325
-0.0184412
-0.0183868
-0.0183443
-0.0183036
-0.0185195
-0.0183781
-0.0184028
 -0.018445
-0.0182913
-0.0182712
-0.0183375
-0.0183242
  -0.01845
-0.0184111
-0.0182419
-0.0181755
  0.393255
-0.0158851
 0.0838498
 0.0815789
-0.0177028
 0.0826583
-0.0180784
-0.0181472
-0.0183916
 -0.018246
-0.0183886
-0.0183068
-0.0182957
-0.0183254
-0.0182116
-0.0182285
-0.0184222
-0.0182714
-0.0182764
-0.0182376
-0.0183291
-0.0183071
-0.0183482
-0.0182994
-0.0160087
 0.0811615
-0.0170954
 0.0825513
 0.0826287
  0.188097
  0.188419
 0.0882434
  0.086312
-0.0150661
-0.0156279
-0.0177728
-0.0182652
-0.0183222
-0.0182745
-0.0183135
-0.0181034
-0.0179584
-0.0179364
-0.0182482
-0.0182154
-0.0183132
-0.0181852
-0.0184032
 0.0820274
  0.183878
 0.0850281
 0.0832632
-0.0169956
 0.0849193
-0.0165516
-0.0172723
-0.0178013
-0.0180427
-0.0180196
-0.0183321
 -0.018325
-0.0184044
-0.0181664
-0.0182459
-0.0183893
-0.0182066
-0.0182764
-0.0184753
-0.0183793
 0.0814627
 0.0806698
-0.0174653
-0.0179817
-0.0177157
-0.0180306
-0.0181741
-0.0182745
-0.0181858
-0.0183414
-0.0182795
-0.0183684
-0.0184587
 -0.018343
-0.0183415
-0.0184232
-0.0182934
-0.0183241
-0.0182614
-0.0182912
 -0.018477
-0.0182433
-0.0182713
 -0.018153
-0.0182977
-0.0176696
  0.193219
-0.0151532
 -0.018374
-0.0184634
-0.0182205
-0.0181815
-0.0184008
-0.0184337
-0.0183653
-0.0182319
-0.0182262
-0.0182336
-0.0183632
-0.0182648
-0.0183353
-0.0182694
-0.0183397
-0.0183828
-0.0183606
-0.0183631
-0.0182526
 -0.018141
 -0.017413
  0.083137
  0.185627
-0.0185153
-0.0183513
-0.0183827
-0.0182974
-0.0183911
-0.0184103
-0.0182507
-0.0184616
-0.0182915
-0.0183141
-0.0184191
-0.0181938
-0.0184085
-0.0183661
-0.0183109
-0.0184584
-0.0181812
-0.0183452
-0.0181618
-0.0182038
-0.0183058
-0.0183461
-0.0183473
-0.0183307
  0.401895
-0.0147594
-0.0178324
-0.0182444
-0.0181686
-0.0179958
-0.0183695
-0.0182914
 -0.018426
-0.0183622
-0.0184433
-0.0185437
-0.0184964
-0.0182646
-0.0183752
-0.0183375
 -0.018157
-0.0183744
-0.0182517
 0.0815691
-0.0176745
 -0.015881
 0.0902842
  0.517984
  0.186618
-0.0157771
-0.0175498
-0.0180497
-0.0181638
-0.0180467
-0.0182714
-0.0182161
-0.0184665
-0.0182153
-0.0183975
-0.0182478
 -0.018284
-0.0183222
 -0.018246
-0.0181682
-0.0181386
-0.0179717
 -0.018155
-0.0183346
-0.0182476
-0.0183146
-0.0181906
-0.0182564
-0.0180188
-0.0159197
-0.0164769
 0.0823949
-0.0176546
-0.0165618
-0.0174839
-0.0178865
-0.0181919
-0.0181884
-0.0183789
-0.0183677
-0.0184184
-0.0185451
-0.0184867
-0.0182796
-0.0182548
-0.0180856
-0.0179557
-0.0182978
-0.0182712
-0.0181052
-0.0179646
-0.0169767
 0.0899123
-0.0168656
 -0.017889
-0.0180316
-0.0182648
-0.0173457
-0.0179609
-0.0181566
-0.0183814
-0.0183313
-0.0183501
-0.0182784
-0.0183551
-0.0184374
-0.0182676
 -0.018356
-0.0182407
-0.0183969
-0.0183891
 -0.018304
-0.0184454
-0.0182473
 -0.017962
-0.0176249
-0.0178373
-0.0183708
-0.0184014
-0.0183568
-0.0183876
-0.0182753
-0.0183289
-0.0184116
 -0.018421
-0.0184215
-0.0184235
-0.0182725
 -0.018223
-0.0182594
  -0.01834
-0.0184629
-0.0182903
-0.0182829
-0.0183366
-0.0183281
-0.0182433
-0.0181566
-0.0182527
-0.0180975
-0.0172639
-0.0181698
-0.0179978
-0.0180364
-0.0181868
-0.0175136
-0.0179178
-0.0181116
-0.0182529
   -0.0183
-0.0183443
-0.0183141
-0.0183552
-0.0183399
 -0.018278
-0.0184025
-0.0184701
-0.0185002
-0.0181115
-0.0182305
-0.0181784
-0.0182504
-0.0179692
 -0.016713
-0.0183121
 -0.018345
-0.0182056
-0.0182713
-0.0183442
-0.0183773
-0.0184686
-0.0182947
-0.0182523
-0.0181791
-0.0184754
-0.0182168
-0.0183104
-0.0182959
-0.0183704
-0.0183647
-0.0185108
-0.0182758
 -0.018399
 -0.018408
-0.0182791
-0.0183206
-0.0181987
-0.0147932
-0.0179857
-0.0182996
-0.0183501
-0.0183983
-0.0183453
-0.0183437
-0.0183422
-0.0183727
-0.0184265
-0.0184078
-0.0183498
-0.0183023
-0.0184321
-0.0183974
-0.0182463
-0.0183264
-0.0184038
-0.0184106
-0.0182267
-0.0183553
-0.0182706
-0.0180869
-0.0176448
-0.0170623
-0.0176555
-0.0180786
-0.0182807
-0.0183597
-0.0183254
-0.0182734
-0.0184098
-0.0183211
-0.0182981
-0.0183919
-0.0183721
-0.0183497
-0.0185279
-0.0185172
-0.0184311
-0.0184407
-0.0183546
-0.0183475
-0.0183783
-0.0183761
-0.0182381
 -0.018323
-0.0182032
-0.0182437
-0.0182486
-0.0185013
-0.0184749
 -0.018312
-0.0183733
-0.0184218
 -0.018567
-0.0183654
-0.0183839
-0.0183874
-0.0182468
-0.0184063
-0.0185382
-0.0184327
 -0.018393
-0.0184202
-0.0182621
-0.0186122
-0.0182939
-0.0183217
-0.0182639
-0.0183076
-0.0183921
-0.0178188
-0.0182589
-0.0183027
-0.0184233
-0.0183069
-0.0186358
-0.0181858
-0.0181833
-0.0182825
-0.0183001
-0.0182997
-0.0184896
-0.0183085
-0.0182997
-0.0184026
-0.0184107
-0.0183271
-0.0184088
-0.0183514
-0.0181699
 -0.018216
-0.0180537
-0.0176867
-0.0178263
 -0.018241
-0.0183984
-0.0183145
-0.0183356
-0.0183158
 -0.018222
 -0.018347
-0.0181961
 -0.018268
-0.0184229
-0.0183103
 -0.018457
-0.0184043
-0.0183623
-0.0182807
 -0.018268
-0.0183156
-0.0184156
-0.0183154
-0.0183036
-0.0184578
-0.0182882
-0.0184379
-0.0179664
-0.0172439
 -0.018251
-0.0183862
-0.0183038
-0.0184022
-0.0183933
  -0.01837
-0.0183211
-0.0183392
-0.0183128
-0.0183886
-0.0182928
-0.0182922
-0.0183651
-0.0182715
 -0.018238
-0.0184223
-0.0182476
-0.0183411
-0.0182206
-0.0183161
-0.0180855
-0.0179979
-0.0183012
-0.0183584
-0.0135115
-0.0174549
-0.0179503
-0.0181453
-0.0183188
-0.0182319
-0.0184703
 -0.018339
 -0.018271
-0.0183256
-0.0183854
-0.0183243
-0.0184766
-0.0183798
-0.0185016
-0.0184665
-0.0183386
-0.0183717
-0.0181596
-0.0183405
 -0.018333
-0.0185021
-0.0183281
-0.0183407
-0.0157832
  -0.01818
-0.0184324
-0.0184472
-0.0184426
-0.0182794
-0.0183856
-0.0184197
-0.0184314
-0.0182203
-0.0184389
-0.0184409
-0.0183809
-0.0184622
-0.0183299
-0.0182422
-0.0183008
-0.0182862
-0.0182968
-0.0182917
-0.0184484
-0.0184358
-0.0183936
-0.0181449
 -0.018259
-0.0184195
-0.0184927
-0.0182776
 -0.018275
-0.0183217
-0.0181973
-0.0182317
 -0.018494
-0.0182622
 -0.018427
-0.0183067
-0.0181871
-0.0184016
-0.0183692
-0.0184264
-0.0181884
   -0.0182
-0.0183866
-0.0183842
-0.0182276
 -0.018348
-0.0183865
 -0.017497
-0.0183439
-0.0183781
-0.0182864
-0.0182892
-0.0183636
-0.0182726
-0.0184428
-0.0182961
-0.0182557
-0.0183541
-0.0183503
-0.0184871
 -0.018283
-0.0183524
-0.0182868
-0.0181508
-0.0184187
-0.0182632
-0.0183678
 -0.018296
-0.0183814
-0.0183105
-0.0182686
 -0.018255
-0.0183703
-0.0184965
-0.0182438
 -0.018255
-0.0184558
-0.0182472
-0.0184259
-0.0184174
-0.0182655
-0.0182854
-0.0184616
-0.0182963
-0.0184837
-0.0183466
-0.0183217
-0.0182664
-0.0181658
-0.0183309
-0.0183209
-0.0182863
-0.0182532
-0.0184306
-0.0183125
-0.0183708
-0.0183486
-0.0182457
-0.0183869
-0.0183171
-0.0182201
-0.0182644
-0.0184102
-0.0182463
-0.0184405
-0.0183192
-0.0183277
-0.0183009
-0.0185204
-0.0183933
-0.0183127
-0.0183867
-0.0183678
-0.0183861
-0.0183824
-0.0182908
-0.0183892
-0.0183027
-0.0182979
-0.0183472
-0.0183668
-0.0186339
-0.0183223
-0.0183718
-0.0183405
-0.0182406
-0.0184795
  -0.01835
-0.0183641
-0.0183478
-0.0184509
-0.0182913
-0.0183365
-0.0181629
-0.0183903
-0.0184482
-0.0183537
-0.0183629
-0.0183583
-0.0181769
-0.0182659
-0.0182852
-0.0184596
-0.0183423
-0.0182562
-0.0183868
-0.0184672
-0.0182757
-0.0183449
-0.0184766
-0.0182081
-0.0183687
-0.0183694
-0.0182115
-0.0184468
-0.0183454
-0.0183032
-0.0183683
-0.0183113
-0.0182461
-0.0184249
-0.0183594
-0.0183609
-0.0182578
-0.0184973
-0.0182529
-0.0184293
-0.0181764
-0.0184797
-0.0181957
-0.0183832
-0.0182923
-0.0184801
-0.0184446
-0.0183912
 -0.018383
-0.0184666
-0.0183586
-0.0183945
-0.0182913
no_of_iter = 600
 0.0539738
-0.0401344
-0.0414157
-0.0402411
-0.0386935
-0.0382777
 0.0586308
-0.0417231
 0.0568114
-0.0403246
-0.0410459
  0.255291
   2.80019
  0.156151
  0.448886
  0.155168
 -0.038239
  0.548188
-0.0422215
 0.0580699
-0.0404569
 -0.042447
-0.0418791
-0.0399861
-0.0400278
-0.0395261
-0.0421621
-0.0398077
 -0.042268
-0.0386593
-0.0412228
-0.0407096
   0.15648
  0.348965
  0.847746
   1.32009
-0.0397781
-0.0417836
-0.0413748
-0.0412566
-0.0400029
-0.0406322
-0.0399259
 -0.044043
-0.0419988
-0.0412474
-0.0429344
-0.0416933
-0.0416041
-0.0414172
-0.0400293
-0.0405738
-0.0401054
-0.0406283
  0.154514
-0.0409783
-0.0409653
 0.0576035
  0.456626
   1.52119
  0.940852
  0.648556
 0.0623924
 0.0577678
 0.0569595
-0.0397962
-0.0402535
-0.0409703
-0.0395392
-0.0441645
-0.0417374
-0.0446978
 -0.040248
-0.0403469
-0.0446877
-0.0404314
-0.0403691
-0.0411636
-0.0438475
 -0.041841
 -0.040828
 0.0548535
-0.0381708
  0.552939
  0.453068
-0.0331641
-0.0424402
-0.0410941
-0.0408813
-0.0411352
-0.0405294
 -0.042995
-0.0419637
-0.0410892
-0.0414709
-0.0427982
-0.0415365
-0.0395769
-0.0392504
-0.0410391
-0.0389742
-0.0388118
  0.353963
-0.0385142
-0.0389313
 0.0574024
-0.0409777
  0.655753
  0.744264
   1.54845
  0.663252
  0.354955
 0.0604076
 0.0592768
-0.0408908
-0.0389416
-0.0410582
-0.0401519
-0.0435643
-0.0422803
-0.0417194
 -0.039643
-0.0406711
-0.0407059
 0.0586284
  -0.03978
-0.0409405
-0.0413122
 0.0569671
 0.0563682
 0.0581628
-0.0378775
 0.0552055
-0.0425726
-0.0413081
-0.0403181
-0.0413479
-0.0404428
-0.0413372
-0.0402696
-0.0441611
-0.0428573
-0.0418511
-0.0416209
-0.0400542
-0.0399791
-0.0400407
-0.0423538
-0.0440703
  -0.04065
 -0.042325
-0.0390484
-0.0421767
-0.0402304
-0.0408271
  0.158173
 0.0537638
-0.0391084
-0.0424497
-0.0404663
-0.0405965
  0.156092
-0.0410669
-0.0404358
-0.0390021
-0.0410697
-0.0400525
-0.0418564
-0.0406182
-0.0409201
 -0.041569
-0.0422342
-0.0394825
-0.0423302
-0.0404785
-0.0416709
 -0.041939
-0.0420943
-0.0411984
-0.0421874
  0.360454
-0.0404387
-0.0401063
-0.0383311
-0.0414202
 -0.044318
 -0.042112
-0.0387965
-0.0416216
-0.0396482
-0.0401252
-0.0415748
-0.0439734
-0.0418143
-0.0451517
-0.0413942
-0.0416278
-0.0405863
-0.0415769
-0.0402426
  0.055898
-0.0403892
-0.0388469
-0.0393197
-0.0420476
-0.0391103
-0.0400893
-0.0409063
-0.0407652
-0.0428415
-0.0404611
-0.0410824
-0.0399955
-0.0405038
-0.0440938
-0.0415182
-0.0437444
-0.0413334
-0.0417601
-0.0442043
-0.0400425
-0.0407853
-0.0420709
-0.0417599
 -0.040189
-0.0415684
 -0.039894
  0.156179
  0.555046
  0.445271
-0.0407918
 0.0577937
 0.0580561
-0.0404075
-0.0392315
-0.0396165
-0.0412616
-0.0419238
-0.0431332
 -0.043606
-0.0417808
-0.0409362
-0.0409651
-0.0417073
-0.0415997
-0.0418492
 0.0581103
 0.0557739
-0.0451569
 0.0556732
  0.252745
  0.462284
   1.12067
   1.88631
  0.841264
  0.062446
 0.0569789
 0.0558393
-0.0442409
-0.0404139
-0.0406296
-0.0401928
-0.0394853
-0.0423685
-0.0403438
-0.0410881
-0.0435058
-0.0411383
-0.0408252
-0.0439326
-0.0399602
 -0.042096
-0.0398689
-0.0408148
-0.0413187
  -0.04089
-0.0396458
  0.158123
 0.0596916
-0.0403077
  0.155904
-0.0399332
  0.154114
-0.0415513
-0.0399303
-0.0393665
 0.0575168
-0.0410116
-0.0416636
-0.0405398
-0.0420733
-0.0430976
-0.0409218
 0.0562684
   0.15471
 0.0570151
-0.0401109
 0.0601816
  0.161456
   0.15723
  0.658977
-0.0374759
  0.156721
  0.157898
-0.0416597
  0.449697
-0.0375893
-0.0402135
-0.0431249
-0.0431993
-0.0425571
-0.0408975
-0.0389015
-0.0410017
-0.0457826
-0.0414899
-0.0412589
 0.0586108
-0.0421238
-0.0414797
-0.0396911
-0.0441321
-0.0395777
  -0.04242
   1.12873
-0.0409123
 0.0561365
-0.0391389
 0.0578428
 0.0600258
 0.0542922
-0.0447236
-0.0443253
-0.0405444
-0.0405918
-0.0416342
-0.0420182
-0.0421064
 -0.040518
-0.0429003
-0.0413758
-0.0428658
-0.0409167
-0.0425086
-0.0408458
-0.0400964
-0.0411403
-0.0405428
-0.0383639
-0.0420674
-0.0405487
 -0.040554
-0.0415211
 -0.039949
  0.053709
-0.0399871
-0.0411306
-0.0434536
-0.0405977
-0.0413527
-0.0398951
-0.0425795
 0.0587094
 0.0586099
-0.0402465
-0.0406073
-0.0395021
-0.0399011
-0.0416055
-0.0405626
-0.0400135
-0.0407868
 0.0575622
-0.0354238
 0.0628063
 0.0602219
  0.154556
  0.254128
-0.0391751
 0.0583763
-0.0436046
  0.058509
-0.0401254
 0.0567552
-0.0408462
-0.0416089
-0.0412666
-0.0396604
-0.0413805
-0.0421378
-0.0407074
-0.0426118
 0.0584114
 0.0564285
 0.0557002
  0.548322
  0.456202
  0.156113
 0.0549826
 0.0590029
-0.0425777
-0.0418537
-0.0403424
-0.0404097
-0.0415855
-0.0443161
-0.0417849
-0.0424629
-0.0399077
-0.0427323
-0.0398305
-0.0395334
-0.0387268
-0.0401825
-0.0406793
 -0.038881
-0.0419149
-0.0421118
-0.0401467
-0.0426453
  0.647227
  0.255065
  0.156746
 0.0571556
-0.0388839
  0.154912
-0.0421923
-0.0403516
-0.0414868
-0.0403616
-0.0397172
  -0.04058
-0.0391022
-0.0423924
-0.0414378
-0.0389032
 -0.038507
-0.0411107
-0.0398474
-0.0413679
-0.0423046
 -0.042373
-0.0446318
-0.0421446
 0.0580549
 0.0576752
-0.0399595
  0.155902
 0.0580339
  0.252852
  0.256459
  0.161688
  0.159157
 0.0628304
 0.0584642
 0.0590373
-0.0425091
-0.0422593
-0.0417716
-0.0409422
-0.0407219
 0.0584385
 -0.039623
-0.0390056
-0.0414407
-0.0419117
-0.0413126
-0.0433319
 0.0562368
   0.15023
  0.350421
 0.0567991
-0.0402765
 0.0600746
-0.0386084
-0.0385712
 -0.040876
-0.0397199
-0.0420432
-0.0420497
-0.0449021
-0.0401049
-0.0396647
-0.0424974
-0.0408473
-0.0403272
-0.0412716
-0.0431685
-0.0429458
 0.0537422
 0.0569615
-0.0416835
 -0.040227
-0.0417421
-0.0437447
-0.0397167
-0.0399518
 -0.040973
-0.0425408
 -0.043142
-0.0419185
-0.0449665
-0.0422303
-0.0406105
-0.0415479
-0.0413658
-0.0407998
-0.0405802
-0.0406842
-0.0417841
-0.0430826
-0.0408086
 -0.041086
-0.0399276
-0.0424848
  0.261883
-0.0366095
-0.0402006
-0.0400607
-0.0406954
-0.0425565
-0.0419616
-0.0405139
-0.0419404
-0.0418866
   -0.0407
-0.0424869
-0.0427123
-0.0397428
 -0.039996
-0.0419006
-0.0399936
-0.0422976
-0.0425061
-0.0436384
-0.0410982
-0.0427821
 -0.039149
  0.155332
  0.348376
-0.0452623
 -0.040699
-0.0404101
-0.0466071
-0.0391518
-0.0409572
-0.0415973
 -0.039728
-0.0410752
-0.0419836
-0.0402916
 -0.039876
-0.0442642
-0.0422838
-0.0402197
-0.0400993
-0.0421615
-0.0416927
-0.0401759
-0.0391843
-0.0408811
-0.0405575
-0.0425981
-0.0408157
    1.3383
-0.0374303
 0.0542069
-0.0412011
-0.0429584
-0.0425911
-0.0400723
-0.0402208
-0.0438815
-0.0415086
-0.0404788
-0.0414444
-0.0394483
-0.0408446
 -0.038451
-0.0400156
-0.0419354
-0.0405468
-0.0405449
  0.057012
 0.0580776
-0.0400121
  0.448261
   1.53597
  0.160094
-0.0370346
  -0.03924
-0.0392925
-0.0400736
-0.0401992
-0.0411264
-0.0386545
-0.0421391
-0.0423762
-0.0398111
-0.0424683
-0.0406512
-0.0425154
-0.0398975
-0.0404242
 0.0574216
-0.0411807
-0.0424925
-0.0405801
-0.0430199
-0.0416764
-0.0405664
-0.0437322
-0.0420802
-0.0435421
-0.0413089
 0.0569915
 0.0567758
 0.0595014
 0.0560054
-0.0396196
-0.0415717
-0.0409243
-0.0418382
-0.0423134
-0.0400219
 -0.041593
-0.0436856
-0.0394439
-0.0399599
-0.0427138
-0.0412365
 0.0572697
-0.0401759
-0.0393147
-0.0393221
-0.0386955
  0.163139
  0.059178
-0.0414641
-0.0431242
-0.0396803
-0.0408494
-0.0405192
-0.0406345
-0.0411526
-0.0403404
-0.0404114
-0.0403285
-0.0406765
 -0.040103
 -0.040151
-0.0420379
-0.0405677
-0.0396034
-0.0423163
 -0.040738
-0.0389483
 -0.045578
-0.0425888
 0.0547687
-0.0398251
-0.0392557
-0.0392904
 0.0558706
 -0.044497
-0.0401181
 -0.042398
 -0.042854
-0.0404885
-0.0423629
-0.0443414
-0.0437452
-0.0409739
-0.0414609
-0.0421387
-0.0412458
-0.0423794
-0.0417111
-0.0441736
 -0.041379
 -0.040044
-0.0407148
-0.0407982
-0.0420244
-0.0396738
-0.0402891
-0.0412806
-0.0408982
-0.0410957
  0.059392
-0.0404537
 -0.041068
 0.0548991
-0.0414476
-0.0414032
 -0.041673
-0.0418981
-0.0405562
-0.0415202
-0.0418112
-0.0432679
-0.0401265
-0.0416018
-0.0425471
 -0.040369
-0.0412371
-0.0419731
 0.0576635
-0.0396762
-0.0411871
-0.0388514
-0.0446787
-0.0397792
-0.0403967
-0.0405547
 -0.042138
-0.0442612
-0.0421436
-0.0412357
-0.0413474
-0.0407441
-0.0427246
-0.0430597
-0.0416946
   -0.0441
-0.0422394
-0.0424991
-0.0413768
-0.0386529
-0.0414736
-0.0404262
 0.0613588
-0.0403204
 -0.040626
-0.0424207
-0.0413789
-0.0408076
-0.0405794
-0.0432407
-0.0407546
 -0.040495
-0.0401179
-0.0407848
-0.0407917
-0.0435147
-0.0421023
-0.0413529
-0.0394756
-0.0406114
-0.0422085
 -0.042036
 -0.041244
-0.0414972
-0.0395014
-0.0412084
 0.0581699
-0.0412365
  -0.04113
-0.0411168
-0.0412059
-0.0416736
-0.0454736
 -0.040656
-0.0400244
-0.0411916
-0.0402152
-0.0414228
 -0.040128
-0.0395967
-0.0392627
-0.0426241
-0.0416424
 -0.043518
-0.0419313
-0.0414254
-0.0403712
 -0.041853
-0.0405282
-0.0398519
 -0.040892
-0.0409709
-0.0400255
-0.0405257
-0.0415251
-0.0413232
-0.0412171
-0.0405442
-0.0413827
-0.0404575
 -0.040151
-0.0420655
-0.0401851
-0.0406219
-0.0401487
-0.0403288
-0.0433304
-0.0420378
-0.0391787
-0.0402853
-0.0429194
-0.0403373
-0.0406334
-0.0429827
-0.0409352
-0.0404043
-0.0429534
-0.0400931
-0.0451257
-0.0410832
-0.0407637
-0.0400803
-0.0405262
-0.0397135
-0.0422758
-0.0426032
-0.0437926
-0.0412746
-0.0413265
-0.0424756
-0.0402697
-0.0424901
-0.0410475
-0.0413904
-0.0392811
-0.0407555
-0.0389564
 -0.041508
-0.0420383
-0.0409155
-0.0416113
-0.0411277
-0.0406662
-0.0412202
-0.0417546
-0.0410723
-0.0401062
-0.0387241
-0.0413802
-0.0434652
-0.0422848
-0.0429585
-0.0435142
-0.0409177
-0.0410718
-0.0440036
-0.0405084
-0.0433406
-0.0395957
-0.0395869
-0.0401376
-0.0396453
-0.0390857
-0.0392379
-0.0420377
-0.0405293
-0.0420723
-0.0443244
-0.0398868
-0.0395204
 -0.041498
-0.0430619
-0.0413659
-0.0401963
-0.0412988
-0.0445925
-0.0426646
-0.0410229
 -0.040993
-0.0430803
-0.0423665
-0.0400847
  -0.04121
 -0.041139
 -0.040012
-0.0430616
-0.0402258
 -0.035286
-0.0403069
-0.0396628
-0.0398808
-0.0411515
-0.0412116
-0.0401057
-0.0407257
-0.0417158
-0.0415519
-0.0417279
-0.0417935
-0.0394667
-0.0412695
-0.0405466
 -0.042093
-0.0402905
-0.0413437
-0.0413288
 -0.040704
-0.0438413
-0.0426881
-0.0436296
-0.0408878
 -0.039616
-0.0421052
-0.0418981
  -0.04132
-0.0404506
-0.0409173
-0.0428472
-0.0406012
-0.0423842
-0.0421822
-0.0414641
-0.0421601
 -0.041641
-0.0437428
-0.0400643
-0.0432419
-0.0408453
-0.0413688
-0.0408622
-0.0441774
-0.0432558
 -0.042505
-0.0433429
-0.0410837
-0.0433669
-0.0396135
-0.0433602
 -0.044322
-0.0428023
-0.0409731
-0.0410552
-0.0418545
-0.0453036
-0.0410135
-0.0426071
-0.0397852
-0.0425423
-0.0411388
-0.0448155
-0.0417987
-0.0399785
-0.0443921
-0.0413255
-0.0404878
-0.0392428
-0.0414006
-0.0415537
-0.0396419
-0.0422457
-0.0417528
-0.0420469
-0.0432029
 -0.040888
-0.0411264
-0.0399734
-0.0407232
-0.0418376
-0.0408394
-0.0392244
-0.0401347
 -0.040291
-0.0396524
-0.0407009
-0.0410017
-0.0428397
 -0.042669
-0.0425083
-0.0396583
-0.0414801
-0.0408921
-0.0407719
-0.0410364
 -0.042426
-0.0397542
-0.0424046
-0.0393943
-0.0407705
 -0.042558
-0.0420825
-0.0404425
-0.0407074
-0.0409856
-0.0406267
-0.0406956
-0.0425645
-0.0418495
-0.0421408
 -0.042767
-0.0413455
-0.0403388
-0.0389747
-0.0398197
-0.0430714
-0.0425021
 -0.038365
-0.0414592
-0.0412799
 -0.042923
-0.0406903
-0.0412001
-0.0409178
-0.0434774
-0.0425844
-0.0431717
-0.0391599
-0.0416421
-0.0417436
-0.0433243
-0.0416248
-0.0425303
-0.0408965
 -0.038936
 -0.040022
-0.0408834
 -0.040998
-0.0404251
-0.0428766
-0.0401701
-0.0409424
 -0.041949
-0.0422858
-0.0406376
-0.0440392
-0.0403579
-0.0421743
 -0.042542
-0.0406715
 -0.043205
-0.0401527
-0.0410862
-0.0420265
-0.0430916
-0.0404224
-0.0412971
-0.0429641
-0.0420329
-0.0410358
-0.0422786
-0.0399475
-0.0396691
-0.0394474
-0.0424624
-0.0416542
-0.0425691
-0.0412981
-0.0388567
-0.0412427
-0.0427596
 -0.040081
-0.0420346
-0.0410028
-0.0408196
-0.0407646
-0.0434994
-0.0414337
-0.0397996
-0.0424216
-0.0417518
-0.0423475
-0.0439799
 -0.039347
-0.0420049
-0.0410796
-0.0427064
-0.0415006
-0.0411205
-0.0422682
-0.0450357
-0.0406771
-0.0393926
-0.0398375
-0.0412931
 -0.039089
-0.0398166
-0.0402218
-0.0426538
-0.0391271
-0.0398351
-0.0419899
-0.0423567
